[{"layerSize":9,"activations":[1,1,1,1,1,1,1,1,1],"weights":null,"biases":null,"activationFn":null,"labels":[],"learningRate":0.1,"updateVariables":true,"momentumAdjustment":[0,0,0,0,0,0,0,0,0],"updates":[],"gradients":[],"type":"input"},{"layerSize":8,"activations":[1,1,1,1,1,1,1,1,1],"weights":[[0.21588191025786319,0.40751637471920055,0.4514640808988952,-0.4641011269082795,-0.09617756040618722,0.5396730112255715,-0.4723199461397968,0.4555002201374818,-0.7023215904083893],[-0.48485353773643053,-0.030352030909242097,0.4335806670677765,0.29580543049487656,-0.8992163746516195,0.700298783224676,-0.19792367787081525,0.06082457759840445,0.9215902823106825],[-0.2018455448482151,-0.37387845675322645,-0.16030667887514718,-0.06902942415707358,-0.04090654407479368,-0.28852067504526285,-0.16886867654216825,-0.10595574245014147,0.09333907125492856],[-0.1628504282148614,0.01741823676608938,-0.6321659868759203,-0.5937658819698708,0.13034472802907113,-0.35853203115134674,0.05368931923167743,-0.5698197335279078,0.14707964027765744],[0.14479715021518264,0.406525097236941,-0.331693850595722,-0.4762859673581188,-0.4183756382135333,0.30848159361840405,-0.5024758324520874,-0.7329901104510999,0.2980061782748304],[0.009497805079743508,-0.06321399804959472,0.2648847045501489,0.9485524753733976,0.5224153292388495,-1.114108690177913,-0.8016757632209449,0.289707284056364,0.7069549354982237],[0.13332217688757367,0.2427658037494061,-0.47550424639985656,0.28438235020761315,0.2390906132184788,-0.1553021115511939,0.5619818250183547,-1.3137629449449066,0.3050631870920255],[0.02636823871007981,0.340132635544587,-0.6174988334489264,0.4333156289676726,1.1367570327568823,1.0154932570249757,0.673023904647352,0.4943469844117125,0.6731852651579354]],"biases":[0,0,0,0,0,0,0,0],"labels":[],"learningRate":0.1,"updateVariables":true,"momentumAdjustment":[0,0,0,0,0,0,0,0],"updates":[],"gradients":[],"type":"hidden"},{"layerSize":7,"activations":[0.3351153733763592,0.7997541195283087,-0.013159726714911,-0.01968602137435412,-0.01304011379725203,0.7630140823482747,-0.0017796334672250513,4.175124113772271],"weights":[[-0.07953788207761546,-0.320420652538247,0.5679343458684797,0.43751289090656603,0.034864240968552146,0.4288515975682626,0.09781006342487002,1.0467414207874335],[0.4065197677573732,-0.01506282560520018,-0.28892204658029047,1.1612148222729475,0.21754898635177794,0.18703554794984784,0.02322380272102191,0.519346818329544],[-0.4933453229975717,0.040142810653506424,0.5448300162366999,0.6044791435953446,-0.4159703005843343,-0.34568006686350794,-0.6068859496844116,0.01039599699787537],[-0.5796278719695763,0.2131319255065353,0.08257079365033052,-0.026788969037279255,-0.2723293928322944,-0.3067717799039167,-0.5067002632642941,-0.3619543026969503],[0.20537267149509397,-0.4849013381318985,0.8924946158847996,0.4120493960870768,-0.2159316835389048,-0.9654479622099152,-0.07947452466098896,-0.233847237783398],[0.4430376094257519,-0.022188316408048307,-0.25945967956745825,0.6457253941978861,0.5612578495267501,0.008848297569582891,-1.2818604145844883,0.2424139476939103],[-0.5368259418792822,0.5178166869435934,-0.32898867296038325,0.421071833406911,0.3711828475069083,-0.39354984000496773,-0.7345849486943621,-0.3371068130212484]],"biases":[0,0,0,0,0,0,0],"labels":[],"learningRate":0.1,"updateVariables":true,"momentumAdjustment":[0,0,0,0,0,0,0],"updates":[],"gradients":[],"type":"hidden"},{"layerSize":3,"activations":[4.397867602459013,2.4132968904997982,-0.0036614267403982216,-0.01765170694557756,-0.020488693248040847,1.1352482406629,-0.014810122540949763],"weights":[[-0.3635772117472944,0.7368030417085667,0.3135452470721375,0.006135254710588365,-0.3926926803070342,0.5817870732438732,0.16579405546467776],[0.32967206848889935,-0.15545645876472752,-0.4954914235685049,0.5483834756779,0.20546511800062406,0.565908501080194,-0.9178406341247373],[-0.09153737930118802,-0.2588420186616726,-0.558185737371031,0.05669911123678531,-0.549794193046511,-0.41307924629363363,0.04728070444176443]],"biases":[0,0,0],"labels":[],"learningRate":0.1,"updateVariables":true,"momentumAdjustment":[0,0,0],"updates":[],"gradients":[],"classLabels":["lose","draw","win"]}]